0,1,2,3,4,5,6,7,8,9,10,11,12,13,14,15,16,17,18,19
-0.5405865395094517,0.2002221354923196,-0.05413146154132817,-0.3420785736224335,0.34243901933149246,-0.573955407802594,-0.05578401176338199,0.28798705440587613,0.401765370275233,-0.037886304160367895,0.20118979392519887,-0.04496164355732893,-0.10096636301934055,-0.15317260518621367,-0.09544922686293504,-0.2852994544055528,-0.3336537337023128,0.36933665715942177,-0.11880539497606525,-0.2815957759812865
0.025191052433897593,-0.4197998186544389,-0.3452076233686849,0.08577039357319413,-0.7420233563951046,-0.2878304263307809,-0.2535579787043712,-0.5947720462120262,-0.19569817596198696,-0.0546033080993398,-0.20252603622143775,-0.5288596297269832,-0.3172576030615903,-0.17858976634208554,-0.3312928365654856,-0.35715383260921946,0.0074237216494104,-0.05552860584680971,-0.04130078929302185,-0.10732396880584763
-0.08622412438543266,-0.6800906265766348,-0.5979276333126751,0.04670080716003833,-0.4169508405884679,-0.6733588210012729,-0.5891816957061153,-0.6282098900200451,-0.2035575956502824,-0.6406154520058163,-0.022780078282695175,-0.0175602282694597,-0.13040607521742598,-0.13523161418535332,-0.20355164583924606,-0.2883045228431057,-0.012851204198750143,0.20681459739088387,0.145028671924788,-0.008880205643321077
-0.6079783051714625,-0.4892272446206321,0.05760648708805041,-0.3709182190699781,0.10979690867500598,-0.32405848703033474,-0.783137739610093,-0.17689869729427268,-0.31145627265790554,0.12095351973417323,-0.1862144155516733,0.09191088173110082,0.05998799596060265,-0.7130298975947039,0.12215825255546135,0.018594523467534915,-0.6581582999041968,0.0851796274934964,-0.2648582147532512,-0.3831007738036779
0.10702713824694336,-0.25839149996429045,-0.2033634170653987,0.17720784049324037,-0.683061825223166,-0.4915035215500389,-0.1027104407119658,-0.5006639924076038,-0.301707551358667,-0.24144328317181124,-0.6273049890307161,-0.11326359249354485,-0.12605243328176946,-0.5582000812464981,-0.12252827186154654,-0.1943926265342332,0.07518204964922215,-0.08296386699430834,-0.22687207166599804,-0.3031474669108753
-0.4680081540857277,-0.3129663062219542,-0.6605071655625872,-0.01709399399823357,-0.48747892951429606,0.14008287721021132,-0.017185322291423152,-0.41596818293609683,0.16980725484984374,-0.10663646806889354,0.16141532838892675,-0.06018303049374658,-0.1880573717796812,-0.11498866376352532,-0.30923562103726077,0.08305032504114243,-0.6355879862216057,-0.2181917491920134,-0.02636116436630092,0.06489907620365633
0.028231818992401896,-0.05887262620145181,-0.5574307354232808,-0.008142762345635412,-0.4265675382780977,0.23542621682804188,-0.662555604522303,-0.18953879708446367,-0.1547597051761942,-0.3842727224917763,-0.08492880558125444,-0.6383103548326452,-0.6508613312458533,0.23062878922032293,-0.1233290547715307,-0.5416368349592097,0.028412243961716998,-0.052849127500079474,-0.43257200404704566,0.025441353146284446
